<?xml version="1.0"?>
<opencv_storage>
<cascade>
  <stageType>BOOST</stageType>
  <featureType>HAAR</featureType>
  <height>24</height>
  <width>24</width>
  <stageParams>
    <boostType>GAB</boostType>
    <minHitRate>9.9500000476837158e-01</minHitRate>
    <maxFalseAlarm>5.0000000000000000e-01</maxFalseAlarm>
    <weightTrimRate>9.4999998807907104e-01</weightTrimRate>
    <maxDepth>1</maxDepth>
    <maxWeakCount>100</maxWeakCount></stageParams>
  <featureParams>
    <maxCatCount>0</maxCatCount>
    <featSize>1</featSize>
    <mode>BASIC</mode></featureParams>
  <stageNum>15</stageNum>
  <stages>
    <!-- stage 0 -->
    <_>
      <maxWeakCount>3</maxWeakCount>
      <stageThreshold>-1.4015368223190308e+00</stageThreshold>
      <weakClassifiers>
        <_>
          <internalNodes>
            0 -1 117 -4.7808807343244553e-02</internalNodes>
          <leafValues>
            3.1481480598449707e-01 -9.1645443439483643e-01</leafValues></_>
        <_>
          <internalNodes>
            0 -1 10 -1.8765642307698727e-03</internalNodes>
          <leafValues>
            5.3714627027511597e-01 -7.2734558582305908e-01</leafValues></_>
        <_>
          <internalNodes>
            0 -1 77 4.8766140826046467e-03</internalNodes>
          <leafValues>
            2.4226321280002594e-01 -1.</leafValues></_></weakClassifiers></_>
    <!-- stage 1 -->
    <_>
      <maxWeakCount>5</maxWeakCount>
      <stageThreshold>-1.7625633478164673e+00</stageThreshold>
      <weakClassifiers>
        <_>
          <internalNodes>
            0 -1 118 -4.9756597727537155e-02</internalNodes>
          <leafValues>
            5.7303369045257568e-01 -9.1624623537063599e-01</leafValues></_>
        <_>
          <internalNodes>
            0 -1 119 -2.6586505118757486e-03</internalNodes>
          <leafValues>
            6.6414499282836914e-01 -7.2200489044189453e-01</leafValues></_>
        <_>
          <internalNodes>
            0 -1 12 -1.1105467565357685e-03</internalNodes>
          <leafValues>
            8.5068821907043457e-01 -4.4998973608016968e-01</leafValues></_>
        <_>
          <internalNodes>
            0 -1 107 1.1452187318354845e-03</internalNodes>
          <leafValues>
            -3.9071115851402283e-01 7.0948791503906250e-01</leafValues></_>
        <_>
          <internalNodes>
            0 -1 65 3.7276758812367916e-03</internalNodes>
          <leafValues>
            -3.4465709328651428e-01 7.1638864278793335e-01</leafValues></_></weakClassifiers></_>
    <!-- stage 2 -->
    <_>
      <maxWeakCount>8</maxWeakCount>
      <stageThreshold>-2.0233304500579834e+00</stageThreshold>
      <weakClassifiers>
        <_>
          <internalNodes>
            0 -1 120 -1.0590203106403351e-02</internalNodes>
          <leafValues>
            5.3846156597137451e-01 -8.9730805158615112e-01</leafValues></_>
        <_>
          <internalNodes>
            0 -1 122 4.1101905517280102e-03</internalNodes>
          <leafValues>
            -6.4895415306091309e-01 7.1498459577560425e-01</leafValues></_>
        <_>
          <internalNodes>
            0 -1 59 8.7472358718514442e-03</internalNodes>
          <leafValues>
            -4.6880325675010681e-01 4.9093073606491089e-01</leafValues></_>
        <_>
          <internalNodes>
            0 -1 123 -1.0766105260699987e-03</internalNodes>
          <leafValues>
            7.2983074188232422e-01 -3.0398085713386536e-01</leafValues></_>
        <_>
          <internalNodes>
            0 -1 42 2.0992923527956009e-02</internalNodes>
          <leafValues>
            2.3988446593284607e-01 -9.8367786407470703e-01</leafValues></_>
        <_>
          <internalNodes>
            0 -1 8 6.8226419389247894e-03</internalNodes>
          <leafValues>
            -2.5246769189834595e-01 8.9555549621582031e-01</leafValues></_>
        <_>
          <internalNodes>
            0 -1 8 -5.7411151938140392e-03</internalNodes>
          <leafValues>
            8.3582460880279541e-01 -3.1405892968177795e-01</leafValues></_>
        <_>
          <internalNodes>
            0 -1 34 3.8184046745300293e-02</internalNodes>
          <leafValues>
            -3.3167928457260132e-01 6.2235808372497559e-01</leafValues></_></weakClassifiers></_>
    <!-- stage 3 -->
    <_>
      <maxWeakCount>7</maxWeakCount>
      <stageThreshold>-1.9301739931106567e+00</stageThreshold>
      <weakClassifiers>
        <_>
          <internalNodes>
            0 -1 114 1.2890016660094261e-02</internalNodes>
          <leafValues>
            -8.8922154903411865e-01 2.5373134016990662e-01</leafValues></_>
        <_>
          <internalNodes>
            0 -1 44 -3.6504827439785004e-03</internalNodes>
          <leafValues>
            3.4182864427566528e-01 -6.6957378387451172e-01</leafValues></_>
        <_>
          <internalNodes>
            0 -1 63 -7.3366783559322357e-02</internalNodes>
          <leafValues>
            4.4082197546958923e-01 -5.0567090511322021e-01</leafValues></_>
        <_>
          <internalNodes>
            0 -1 2 1.9966887775808573e-03</internalNodes>
          <leafValues>
            -4.4211167097091675e-01 4.3461066484451294e-01</leafValues></_>
        <_>
          <internalNodes>
            0 -1 5 1.0521790012717247e-02</internalNodes>
          <leafValues>
            -2.0713789761066437e-01 8.8454633951187134e-01</leafValues></_>
        <_>
          <internalNodes>
            0 -1 49 -7.5763344764709473e-02</internalNodes>
          <leafValues>
            -9.7236490249633789e-01 2.3708397150039673e-01</leafValues></_>
        <_>
          <internalNodes>
            0 -1 74 -2.5126091204583645e-03</internalNodes>
          <leafValues>
            5.4645782709121704e-01 -3.0158895254135132e-01</leafValues></_></weakClassifiers></_>
    <!-- stage 4 -->
    <_>
      <maxWeakCount>8</maxWeakCount>
      <stageThreshold>-2.0026969909667969e+00</stageThreshold>
      <weakClassifiers>
        <_>
          <internalNodes>
            0 -1 29 1.0299867019057274e-02</internalNodes>
          <leafValues>
            -9.4254934787750244e-01 -4.7499999403953552e-01</leafValues></_>
        <_>
          <internalNodes>
            0 -1 50 -2.0495425164699554e-01</internalNodes>
          <leafValues>
            1.6109563410282135e-01 -6.8221604824066162e-01</leafValues></_>
        <_>
          <internalNodes>
            0 -1 28 3.0655949376523495e-03</internalNodes>
          <leafValues>
            -4.3278920650482178e-01 3.1025388836860657e-01</leafValues></_>
        <_>
          <internalNodes>
            0 -1 57 -1.4461268438026309e-03</internalNodes>
          <leafValues>
            4.9955627322196960e-01 -2.9512149095535278e-01</leafValues></_>
        <_>
          <internalNodes>
            0 -1 32 -6.8063922226428986e-02</internalNodes>
          <leafValues>
            8.3757609128952026e-01 -1.4533896744251251e-01</leafValues></_>
        <_>
          <internalNodes>
            0 -1 88 -1.0542825795710087e-02</internalNodes>
          <leafValues>
            6.2029218673706055e-01 -2.0324292778968811e-01</leafValues></_>
        <_>
          <internalNodes>
            0 -1 45 1.3096556067466736e-03</internalNodes>
          <leafValues>
            -2.2680434584617615e-01 5.5229055881500244e-01</leafValues></_>
        <_>
          <internalNodes>
            0 -1 91 -3.9811086026020348e-05</internalNodes>
          <leafValues>
            1.8232220411300659e-01 -7.3273926973342896e-01</leafValues></_></weakClassifiers></_>
    <!-- stage 5 -->
    <_>
      <maxWeakCount>8</maxWeakCount>
      <stageThreshold>-1.7768636941909790e+00</stageThreshold>
      <weakClassifiers>
        <_>
          <internalNodes>
            0 -1 13 2.5941437482833862e-01</internalNodes>
          <leafValues>
            -8.8648921251296997e-01 -2.2453827653919287e-17</leafValues></_>
        <_>
          <internalNodes>
            0 -1 37 2.7941342443227768e-02</internalNodes>
          <leafValues>
            -7.0039987564086914e-01 2.2926148772239685e-01</leafValues></_>
        <_>
          <internalNodes>
            0 -1 104 -5.9547767043113708e-02</internalNodes>
          <leafValues>
            4.3327960371971130e-01 -3.5164338350296021e-01</leafValues></_>
        <_>
          <internalNodes>
            0 -1 79 -7.4758604168891907e-03</internalNodes>
          <leafValues>
            -1. 1.3346244394779205e-01</leafValues></_>
        <_>
          <internalNodes>
            0 -1 78 5.7174246758222580e-03</internalNodes>
          <leafValues>
            3.1022202968597412e-01 -4.1368377208709717e-01</leafValues></_>
        <_>
          <internalNodes>
            0 -1 24 -2.1158557385206223e-02</internalNodes>
          <leafValues>
            5.2944022417068481e-01 -2.4775613844394684e-01</leafValues></_>
        <_>
          <internalNodes>
            0 -1 95 -2.2918772883713245e-03</internalNodes>
          <leafValues>
            -8.2066214084625244e-01 1.7292892932891846e-01</leafValues></_>
        <_>
          <internalNodes>
            0 -1 35 -1.6747891902923584e-02</internalNodes>
          <leafValues>
            6.3784921169281006e-01 -2.0718844234943390e-01</leafValues></_></weakClassifiers></_>
    <!-- stage 6 -->
    <_>
      <maxWeakCount>9</maxWeakCount>
      <stageThreshold>-1.8713836669921875e+00</stageThreshold>
      <weakClassifiers>
        <_>
          <internalNodes>
            0 -1 101 1.6411323100328445e-02</internalNodes>
          <leafValues>
            -9.1554254293441772e-01 -5.5737704038619995e-01</leafValues></_>
        <_>
          <internalNodes>
            0 -1 6 1.9921258091926575e-02</internalNodes>
          <leafValues>
            -6.2995475530624390e-01 9.7691170871257782e-02</leafValues></_>
        <_>
          <internalNodes>
            0 -1 102 -3.1979172490537167e-04</internalNodes>
          <leafValues>
            -7.2944986820220947e-01 1.0257688164710999e-01</leafValues></_>
        <_>
          <internalNodes>
            0 -1 90 2.3471561726182699e-03</internalNodes>
          <leafValues>
            -4.2421096563339233e-01 2.9146033525466919e-01</leafValues></_>
        <_>
          <internalNodes>
            0 -1 61 1.3711348176002502e-02</internalNodes>
          <leafValues>
            2.0486462116241455e-01 -5.8203679323196411e-01</leafValues></_>
        <_>
          <internalNodes>
            0 -1 113 -4.9610347487032413e-03</internalNodes>
          <leafValues>
            6.3449823856353760e-01 -1.7458906769752502e-01</leafValues></_>
        <_>
          <internalNodes>
            0 -1 103 2.9165845364332199e-02</internalNodes>
          <leafValues>
            -1.9702056050300598e-01 5.6138283014297485e-01</leafValues></_>
        <_>
          <internalNodes>
            0 -1 9 -6.9263894110918045e-03</internalNodes>
          <leafValues>
            4.3850839138031006e-01 -2.6357984542846680e-01</leafValues></_>
        <_>
          <internalNodes>
            0 -1 68 4.2232861742377281e-03</internalNodes>
          <leafValues>
            -2.4945217370986938e-01 4.2607256770133972e-01</leafValues></_></weakClassifiers></_>
    <!-- stage 7 -->
    <_>
      <maxWeakCount>9</maxWeakCount>
      <stageThreshold>-1.8736172914505005e+00</stageThreshold>
      <weakClassifiers>
        <_>
          <internalNodes>
            0 -1 72 -2.3317705839872360e-02</internalNodes>
          <leafValues>
            -5.8798283338546753e-01 -9.2897194623947144e-01</leafValues></_>
        <_>
          <internalNodes>
            0 -1 66 8.4013612940907478e-03</internalNodes>
          <leafValues>
            -6.9464105367660522e-01 -3.8128938525915146e-02</leafValues></_>
        <_>
          <internalNodes>
            0 -1 96 7.2472554165869951e-04</internalNodes>
          <leafValues>
            9.8712876439094543e-02 -6.9995194673538208e-01</leafValues></_>
        <_>
          <internalNodes>
            0 -1 75 -2.7339944615960121e-02</internalNodes>
          <leafValues>
            8.1651639938354492e-01 -1.2245772778987885e-01</leafValues></_>
        <_>
          <internalNodes>
            0 -1 7 6.2535256147384644e-02</internalNodes>
          <leafValues>
            -2.4552579224109650e-01 5.2568244934082031e-01</leafValues></_>
        <_>
          <internalNodes>
            0 -1 81 1.5192028367891908e-03</internalNodes>
          <leafValues>
            1.4786064624786377e-01 -7.5927609205245972e-01</leafValues></_>
        <_>
          <internalNodes>
            0 -1 76 -4.0982253849506378e-03</internalNodes>
          <leafValues>
            2.7176287770271301e-01 -4.2959317564964294e-01</leafValues></_>
        <_>
          <internalNodes>
            0 -1 64 -3.2451259903609753e-03</internalNodes>
          <leafValues>
            3.8629564642906189e-01 -2.8498578071594238e-01</leafValues></_>
        <_>
          <internalNodes>
            0 -1 11 -2.6100866496562958e-02</internalNodes>
          <leafValues>
            5.8598470687866211e-01 -1.8396787345409393e-01</leafValues></_></weakClassifiers></_>
    <!-- stage 8 -->
    <_>
      <maxWeakCount>7</maxWeakCount>
      <stageThreshold>-1.7674822807312012e+00</stageThreshold>
      <weakClassifiers>
        <_>
          <internalNodes>
            0 -1 33 1.6422903537750244e-01</internalNodes>
          <leafValues>
            -8.8023954629898071e-01 -1.4925372786819935e-02</leafValues></_>
        <_>
          <internalNodes>
            0 -1 106 4.0519207715988159e-02</internalNodes>
          <leafValues>
            -6.3980758190155029e-01 1.8429581820964813e-01</leafValues></_>
        <_>
          <internalNodes>
            0 -1 20 3.2654471695423126e-02</internalNodes>
          <leafValues>
            -3.2712030410766602e-01 4.0818461775779724e-01</leafValues></_>
        <_>
          <internalNodes>
            0 -1 124 1.0722691658884287e-03</internalNodes>
          <leafValues>
            1.5105508267879486e-01 -7.9734838008880615e-01</leafValues></_>
        <_>
          <internalNodes>
            0 -1 70 2.8186291456222534e-03</internalNodes>
          <leafValues>
            1.2990386784076691e-01 -9.7100162506103516e-01</leafValues></_>
        <_>
          <internalNodes>
            0 -1 97 2.9047992080450058e-02</internalNodes>
          <leafValues>
            -1.9982494413852692e-01 6.2736332416534424e-01</leafValues></_>
        <_>
          <internalNodes>
            0 -1 54 -1.7102286219596863e-03</internalNodes>
          <leafValues>
            -8.2863706350326538e-01 1.6606025397777557e-01</leafValues></_></weakClassifiers></_>
    <!-- stage 9 -->
    <_>
      <maxWeakCount>8</maxWeakCount>
      <stageThreshold>-1.8374841213226318e+00</stageThreshold>
      <weakClassifiers>
        <_>
          <internalNodes>
            0 -1 93 2.3771570995450020e-02</internalNodes>
          <leafValues>
            -9.2365455627441406e-01 -6.1099368333816528e-01</leafValues></_>
        <_>
          <internalNodes>
            0 -1 109 2.1924752742052078e-02</internalNodes>
          <leafValues>
            -6.4582270383834839e-01 -6.6039621829986572e-02</leafValues></_>
        <_>
          <internalNodes>
            0 -1 47 -4.1137635707855225e-03</internalNodes>
          <leafValues>
            3.0711707472801208e-01 -3.2945251464843750e-01</leafValues></_>
        <_>
          <internalNodes>
            0 -1 55 6.4216139726340771e-03</internalNodes>
          <leafValues>
            -2.1518391370773315e-01 4.2048594355583191e-01</leafValues></_>
        <_>
          <internalNodes>
            0 -1 94 -5.0357577856630087e-04</internalNodes>
          <leafValues>
            2.3284468054771423e-01 -3.7943530082702637e-01</leafValues></_>
        <_>
          <internalNodes>
            0 -1 105 -1.9800899550318718e-02</internalNodes>
          <leafValues>
            5.3730386495590210e-01 -1.4036786556243896e-01</leafValues></_>
        <_>
          <internalNodes>
            0 -1 108 -3.8034403696656227e-03</internalNodes>
          <leafValues>
            4.0910392999649048e-01 -3.0768996477127075e-01</leafValues></_>
        <_>
          <internalNodes>
            0 -1 46 -9.3313269317150116e-03</internalNodes>
          <leafValues>
            7.2056084871292114e-01 -1.4382714033126831e-01</leafValues></_></weakClassifiers></_>
    <!-- stage 10 -->
    <_>
      <maxWeakCount>11</maxWeakCount>
      <stageThreshold>-2.0131978988647461e+00</stageThreshold>
      <weakClassifiers>
        <_>
          <internalNodes>
            0 -1 38 1.6689452528953552e-01</internalNodes>
          <leafValues>
            -9.1600000858306885e-01 -6.8476355075836182e-01</leafValues></_>
        <_>
          <internalNodes>
            0 -1 3 9.8924534395337105e-03</internalNodes>
          <leafValues>
            -6.7978715896606445e-01 -1.2632870674133301e-01</leafValues></_>
        <_>
          <internalNodes>
            0 -1 25 -2.0012162625789642e-02</internalNodes>
          <leafValues>
            2.8118273615837097e-01 -3.2558670639991760e-01</leafValues></_>
        <_>
          <internalNodes>
            0 -1 15 1.6972289886325598e-03</internalNodes>
          <leafValues>
            1.2782083451747894e-01 -6.8372714519500732e-01</leafValues></_>
        <_>
          <internalNodes>
            0 -1 69 2.2055669687688351e-03</internalNodes>
          <leafValues>
            -2.0397786796092987e-01 4.0563288331031799e-01</leafValues></_>
        <_>
          <internalNodes>
            0 -1 80 8.5038784891366959e-04</internalNodes>
          <leafValues>
            1.0466135293245316e-01 -7.7845740318298340e-01</leafValues></_>
        <_>
          <internalNodes>
            0 -1 125 2.2149867436382920e-04</internalNodes>
          <leafValues>
            1.5083254873752594e-01 -5.3847402334213257e-01</leafValues></_>
        <_>
          <internalNodes>
            0 -1 31 1.3969436287879944e-01</internalNodes>
          <leafValues>
            -1.1125247925519943e-01 8.2965046167373657e-01</leafValues></_>
        <_>
          <internalNodes>
            0 -1 115 -6.3147037290036678e-03</internalNodes>
          <leafValues>
            3.7188047170639038e-01 -2.6797825098037720e-01</leafValues></_>
        <_>
          <internalNodes>
            0 -1 98 -8.9614908210933208e-04</internalNodes>
          <leafValues>
            3.3058825135231018e-01 -2.8872358798980713e-01</leafValues></_>
        <_>
          <internalNodes>
            0 -1 58 7.5350503902882338e-04</internalNodes>
          <leafValues>
            1.4567409455776215e-01 -6.4789760112762451e-01</leafValues></_></weakClassifiers></_>
    <!-- stage 11 -->
    <_>
      <maxWeakCount>11</maxWeakCount>
      <stageThreshold>-1.6696929931640625e+00</stageThreshold>
      <weakClassifiers>
        <_>
          <internalNodes>
            0 -1 39 1.6423672437667847e-02</internalNodes>
          <leafValues>
            -8.5762709379196167e-01 1.</leafValues></_>
        <_>
          <internalNodes>
            0 -1 116 -5.8052241802215576e-02</internalNodes>
          <leafValues>
            1.0426735132932663e-01 -5.4312354326248169e-01</leafValues></_>
        <_>
          <internalNodes>
            0 -1 24 -2.3058742284774780e-02</internalNodes>
          <leafValues>
            3.3946046233177185e-01 -2.6974326372146606e-01</leafValues></_>
        <_>
          <internalNodes>
            0 -1 4 -8.5010737180709839e-02</internalNodes>
          <leafValues>
            -9.7848719358444214e-01 8.5055477917194366e-02</leafValues></_>
        <_>
          <internalNodes>
            0 -1 19 9.7797885537147522e-02</internalNodes>
          <leafValues>
            1.1731153726577759e-01 -8.0563038587570190e-01</leafValues></_>
        <_>
          <internalNodes>
            0 -1 86 1.1859675869345665e-02</internalNodes>
          <leafValues>
            -2.5248485803604126e-01 3.6971375346183777e-01</leafValues></_>
        <_>
          <internalNodes>
            0 -1 125 -3.4452119143679738e-04</internalNodes>
          <leafValues>
            -5.2535617351531982e-01 1.5830340981483459e-01</leafValues></_>
        <_>
          <internalNodes>
            0 -1 56 1.5158156165853143e-03</internalNodes>
          <leafValues>
            -1.9320087134838104e-01 4.7800764441490173e-01</leafValues></_>
        <_>
          <internalNodes>
            0 -1 51 -7.8324247151613235e-03</internalNodes>
          <leafValues>
            4.8081916570663452e-01 -1.9912289083003998e-01</leafValues></_>
        <_>
          <internalNodes>
            0 -1 30 5.2198534831404686e-03</internalNodes>
          <leafValues>
            2.0158717036247253e-01 -4.3665653467178345e-01</leafValues></_>
        <_>
          <internalNodes>
            0 -1 112 -3.7177777267061174e-04</internalNodes>
          <leafValues>
            -4.8350936174392700e-01 1.5780782699584961e-01</leafValues></_></weakClassifiers></_>
    <!-- stage 12 -->
    <_>
      <maxWeakCount>10</maxWeakCount>
      <stageThreshold>-1.8104913234710693e+00</stageThreshold>
      <weakClassifiers>
        <_>
          <internalNodes>
            0 -1 18 1.6287855803966522e-02</internalNodes>
          <leafValues>
            -9.0944880247116089e-01 -6.9287019968032837e-01</leafValues></_>
        <_>
          <internalNodes>
            0 -1 21 5.4759206250309944e-03</internalNodes>
          <leafValues>
            -5.5753064155578613e-01 3.5143144428730011e-02</leafValues></_>
        <_>
          <internalNodes>
            0 -1 16 8.1915321061387658e-04</internalNodes>
          <leafValues>
            -3.9906698465347290e-01 1.8141190707683563e-01</leafValues></_>
        <_>
          <internalNodes>
            0 -1 92 3.5395380109548569e-05</internalNodes>
          <leafValues>
            -2.5111812353134155e-01 3.2275044918060303e-01</leafValues></_>
        <_>
          <internalNodes>
            0 -1 60 5.0318120047450066e-03</internalNodes>
          <leafValues>
            1.0154820978641510e-01 -8.7644314765930176e-01</leafValues></_>
        <_>
          <internalNodes>
            0 -1 53 2.4100241716951132e-03</internalNodes>
          <leafValues>
            1.3060404360294342e-01 -5.7420814037322998e-01</leafValues></_>
        <_>
          <internalNodes>
            0 -1 22 -6.9706575013697147e-03</internalNodes>
          <leafValues>
            4.6619164943695068e-01 -1.6857364773750305e-01</leafValues></_>
        <_>
          <internalNodes>
            0 -1 89 -2.4891351349651814e-03</internalNodes>
          <leafValues>
            3.3193984627723694e-01 -2.2579878568649292e-01</leafValues></_>
        <_>
          <internalNodes>
            0 -1 48 -8.6687710136175156e-03</internalNodes>
          <leafValues>
            5.9890156984329224e-01 -1.5000464022159576e-01</leafValues></_>
        <_>
          <internalNodes>
            0 -1 41 4.2430087924003601e-03</internalNodes>
          <leafValues>
            -1.8381144106388092e-01 4.3034708499908447e-01</leafValues></_></weakClassifiers></_>
    <!-- stage 13 -->
    <_>
      <maxWeakCount>12</maxWeakCount>
      <stageThreshold>-1.9418249130249023e+00</stageThreshold>
      <weakClassifiers>
        <_>
          <internalNodes>
            0 -1 36 4.1813385486602783e-01</internalNodes>
          <leafValues>
            -8.5838991403579712e-01 5.5555558204650879e-01</leafValues></_>
        <_>
          <internalNodes>
            0 -1 52 -1.4514157176017761e-01</internalNodes>
          <leafValues>
            2.7137333527207375e-02 -5.4750823974609375e-01</leafValues></_>
        <_>
          <internalNodes>
            0 -1 17 1.4097929233685136e-03</internalNodes>
          <leafValues>
            -3.0023786425590515e-01 2.7655926346778870e-01</leafValues></_>
        <_>
          <internalNodes>
            0 -1 87 4.1306931525468826e-03</internalNodes>
          <leafValues>
            1.0173743218183517e-01 -7.8854632377624512e-01</leafValues></_>
        <_>
          <internalNodes>
            0 -1 85 8.8299205526709557e-04</internalNodes>
          <leafValues>
            -2.5379157066345215e-01 2.7667796611785889e-01</leafValues></_>
        <_>
          <internalNodes>
            0 -1 14 5.5753556080162525e-04</internalNodes>
          <leafValues>
            1.2088331580162048e-01 -5.8878445625305176e-01</leafValues></_>
        <_>
          <internalNodes>
            0 -1 99 4.5476653613150120e-03</internalNodes>
          <leafValues>
            1.0074391216039658e-01 -7.8175747394561768e-01</leafValues></_>
        <_>
          <internalNodes>
            0 -1 26 -3.7562166107818484e-04</internalNodes>
          <leafValues>
            -5.9342557191848755e-01 1.1409390717744827e-01</leafValues></_>
        <_>
          <internalNodes>
            0 -1 40 -1.7175100510939956e-03</internalNodes>
          <leafValues>
            2.8907659649848938e-01 -2.8229856491088867e-01</leafValues></_>
        <_>
          <internalNodes>
            0 -1 84 -2.2362009622156620e-03</internalNodes>
          <leafValues>
            4.3158450722694397e-01 -1.7262363433837891e-01</leafValues></_>
        <_>
          <internalNodes>
            0 -1 43 -8.0605812370777130e-02</internalNodes>
          <leafValues>
            3.1132254004478455e-01 -2.4213482439517975e-01</leafValues></_>
        <_>
          <internalNodes>
            0 -1 27 -4.2815640568733215e-02</internalNodes>
          <leafValues>
            5.8909714221954346e-01 -1.4288231730461121e-01</leafValues></_></weakClassifiers></_>
    <!-- stage 14 -->
    <_>
      <maxWeakCount>13</maxWeakCount>
      <stageThreshold>-1.9184458255767822e+00</stageThreshold>
      <weakClassifiers>
        <_>
          <internalNodes>
            0 -1 110 -2.9550998006016016e-03</internalNodes>
          <leafValues>
            -4.3434342741966248e-01 -8.7322515249252319e-01</leafValues></_>
        <_>
          <internalNodes>
            0 -1 121 -3.5892575979232788e-03</internalNodes>
          <leafValues>
            1.4827963709831238e-01 -5.2439928054809570e-01</leafValues></_>
        <_>
          <internalNodes>
            0 -1 62 -1.0229258332401514e-03</internalNodes>
          <leafValues>
            -6.0079795122146606e-01 9.6164651215076447e-02</leafValues></_>
        <_>
          <internalNodes>
            0 -1 23 3.6600141320377588e-03</internalNodes>
          <leafValues>
            -2.7069276571273804e-01 2.9848387837409973e-01</leafValues></_>
        <_>
          <internalNodes>
            0 -1 0 2.0003780722618103e-02</internalNodes>
          <leafValues>
            -1.5626780688762665e-01 4.2545014619827271e-01</leafValues></_>
        <_>
          <internalNodes>
            0 -1 111 2.8270836992305703e-05</internalNodes>
          <leafValues>
            -2.3815120756626129e-01 3.1275844573974609e-01</leafValues></_>
        <_>
          <internalNodes>
            0 -1 1 -1.4845732599496841e-02</internalNodes>
          <leafValues>
            4.6522802114486694e-01 -1.6002239286899567e-01</leafValues></_>
        <_>
          <internalNodes>
            0 -1 83 -2.0937703549861908e-02</internalNodes>
          <leafValues>
            2.4926412105560303e-01 -3.7621039152145386e-01</leafValues></_>
        <_>
          <internalNodes>
            0 -1 73 -6.7049592733383179e-02</internalNodes>
          <leafValues>
            -8.0061590671539307e-01 1.1642990261316299e-01</leafValues></_>
        <_>
          <internalNodes>
            0 -1 71 2.4052757769823074e-02</internalNodes>
          <leafValues>
            4.2152300477027893e-02 -8.7901461124420166e-01</leafValues></_>
        <_>
          <internalNodes>
            0 -1 82 1.6453806310892105e-02</internalNodes>
          <leafValues>
            6.2762558460235596e-02 -9.1646969318389893e-01</leafValues></_>
        <_>
          <internalNodes>
            0 -1 100 1.2950680684298277e-03</internalNodes>
          <leafValues>
            -1.7745675146579742e-01 4.4777926802635193e-01</leafValues></_>
        <_>
          <internalNodes>
            0 -1 67 -5.9267808683216572e-04</internalNodes>
          <leafValues>
            -6.8215507268905640e-01 1.0158885270357132e-01</leafValues></_></weakClassifiers></_></stages>
  <features>
    <_>
      <rects>
        <_>
          0 0 4 6 -1.</_>
        <_>
          2 0 2 6 2.</_></rects>
      <tilted>0</tilted></_>
    <_>
      <rects>
        <_>
          0 0 4 15 -1.</_>
        <_>
          2 0 2 15 2.</_></rects>
      <tilted>0</tilted></_>
    <_>
      <rects>
        <_>
          0 0 9 1 -1.</_>
        <_>
          3 0 3 1 3.</_></rects>
      <tilted>0</tilted></_>
    <_>
      <rects>
        <_>
          0 0 11 6 -1.</_>
        <_>
          0 2 11 2 3.</_></rects>
      <tilted>0</tilted></_>
    <_>
      <rects>
        <_>
          0 0 22 12 -1.</_>
        <_>
          0 0 11 6 2.</_>
        <_>
          11 6 11 6 2.</_></rects>
      <tilted>0</tilted></_>
    <_>
      <rects>
        <_>
          0 1 3 10 -1.</_>
        <_>
          1 1 1 10 3.</_></rects>
      <tilted>0</tilted></_>
    <_>
      <rects>
        <_>
          0 1 4 7 -1.</_>
        <_>
          2 1 2 7 2.</_></rects>
      <tilted>0</tilted></_>
    <_>
      <rects>
        <_>
          0 1 6 13 -1.</_>
        <_>
          3 1 3 13 2.</_></rects>
      <tilted>0</tilted></_>
    <_>
      <rects>
        <_>
          0 2 3 9 -1.</_>
        <_>
          1 2 1 9 3.</_></rects>
      <tilted>0</tilted></_>
    <_>
      <rects>
        <_>
          0 5 6 7 -1.</_>
        <_>
          2 5 2 7 3.</_></rects>
      <tilted>0</tilted></_>
    <_>
      <rects>
        <_>
          0 8 3 3 -1.</_>
        <_>
          1 8 1 3 3.</_></rects>
      <tilted>0</tilted></_>
    <_>
      <rects>
        <_>
          0 8 6 8 -1.</_>
        <_>
          3 8 3 8 2.</_></rects>
      <tilted>0</tilted></_>
    <_>
      <rects>
        <_>
          0 9 3 1 -1.</_>
        <_>
          1 9 1 1 3.</_></rects>
      <tilted>0</tilted></_>
    <_>
      <rects>
        <_>
          0 13 24 7 -1.</_>
        <_>
          8 13 8 7 3.</_></rects>
      <tilted>0</tilted></_>
    <_>
      <rects>
        <_>
          0 18 2 3 -1.</_>
        <_>
          0 19 2 1 3.</_></rects>
      <tilted>0</tilted></_>
    <_>
      <rects>
        <_>
          0 19 5 3 -1.</_>
        <_>
          0 20 5 1 3.</_></rects>
      <tilted>0</tilted></_>
    <_>
      <rects>
        <_>
          1 0 5 2 -1.</_>
        <_>
          1 1 5 1 2.</_></rects>
      <tilted>0</tilted></_>
    <_>
      <rects>
        <_>
          1 0 10 2 -1.</_>
        <_>
          1 0 5 1 2.</_>
        <_>
          6 1 5 1 2.</_></rects>
      <tilted>0</tilted></_>
    <_>
      <rects>
        <_>
          1 0 8 4 -1.</_>
        <_>
          1 2 8 2 2.</_></rects>
      <tilted>0</tilted></_>
    <_>
      <rects>
        <_>
          1 0 22 18 -1.</_>
        <_>
          1 0 11 9 2.</_>
        <_>
          12 9 11 9 2.</_></rects>
      <tilted>0</tilted></_>
    <_>
      <rects>
        <_>
          1 0 17 4 -1.</_>
        <_>
          1 2 17 2 2.</_></rects>
      <tilted>0</tilted></_>
    <_>
      <rects>
        <_>
          1 1 3 11 -1.</_>
        <_>
          2 1 1 11 3.</_></rects>
      <tilted>0</tilted></_>
    <_>
      <rects>
        <_>
          1 1 3 12 -1.</_>
        <_>
          2 1 1 12 3.</_></rects>
      <tilted>0</tilted></_>
    <_>
      <rects>
        <_>
          1 1 9 2 -1.</_>
        <_>
          1 2 9 1 2.</_></rects>
      <tilted>0</tilted></_>
    <_>
      <rects>
        <_>
          1 8 4 16 -1.</_>
        <_>
          1 8 2 8 2.</_>
        <_>
          3 16 2 8 2.</_></rects>
      <tilted>0</tilted></_>
    <_>
      <rects>
        <_>
          1 14 8 10 -1.</_>
        <_>
          1 14 4 5 2.</_>
        <_>
          5 19 4 5 2.</_></rects>
      <tilted>0</tilted></_>
    <_>
      <rects>
        <_>
          1 18 1 3 -1.</_>
        <_>
          1 19 1 1 3.</_></rects>
      <tilted>0</tilted></_>
    <_>
      <rects>
        <_>
          1 18 12 3 -1.</_>
        <_>
          7 18 6 3 2.</_></rects>
      <tilted>0</tilted></_>
    <_>
      <rects>
        <_>
          2 0 9 2 -1.</_>
        <_>
          2 1 9 1 2.</_></rects>
      <tilted>0</tilted></_>
    <_>
      <rects>
        <_>
          2 0 22 2 -1.</_>
        <_>
          2 1 22 1 2.</_></rects>
      <tilted>0</tilted></_>
    <_>
      <rects>
        <_>
          2 3 10 8 -1.</_>
        <_>
          2 3 5 4 2.</_>
        <_>
          7 7 5 4 2.</_></rects>
      <tilted>0</tilted></_>
    <_>
      <rects>
        <_>
          2 4 19 20 -1.</_>
        <_>
          2 14 19 10 2.</_></rects>
      <tilted>0</tilted></_>
    <_>
      <rects>
        <_>
          2 16 10 5 -1.</_>
        <_>
          7 16 5 5 2.</_></rects>
      <tilted>0</tilted></_>
    <_>
      <rects>
        <_>
          2 16 21 5 -1.</_>
        <_>
          9 16 7 5 3.</_></rects>
      <tilted>0</tilted></_>
    <_>
      <rects>
        <_>
          2 17 18 4 -1.</_>
        <_>
          8 17 6 4 3.</_></rects>
      <tilted>0</tilted></_>
    <_>
      <rects>
        <_>
          3 0 1 18 -1.</_>
        <_>
          3 6 1 6 3.</_></rects>
      <tilted>0</tilted></_>
    <_>
      <rects>
        <_>
          3 0 18 19 -1.</_>
        <_>
          12 0 9 19 2.</_></rects>
      <tilted>0</tilted></_>
    <_>
      <rects>
        <_>
          3 0 19 4 -1.</_>
        <_>
          3 2 19 2 2.</_></rects>
      <tilted>0</tilted></_>
    <_>
      <rects>
        <_>
          3 0 20 21 -1.</_>
        <_>
          3 7 20 7 3.</_></rects>
      <tilted>0</tilted></_>
    <_>
      <rects>
        <_>
          3 2 8 2 -1.</_>
        <_>
          3 2 4 1 2.</_>
        <_>
          7 3 4 1 2.</_></rects>
      <tilted>0</tilted></_>
    <_>
      <rects>
        <_>
          3 3 9 4 -1.</_>
        <_>
          3 5 9 2 2.</_></rects>
      <tilted>0</tilted></_>
    <_>
      <rects>
        <_>
          3 5 2 14 -1.</_>
        <_>
          3 5 1 7 2.</_>
        <_>
          4 12 1 7 2.</_></rects>
      <tilted>0</tilted></_>
    <_>
      <rects>
        <_>
          3 5 21 8 -1.</_>
        <_>
          3 9 21 4 2.</_></rects>
      <tilted>0</tilted></_>
    <_>
      <rects>
        <_>
          3 7 5 16 -1.</_>
        <_>
          3 15 5 8 2.</_></rects>
      <tilted>0</tilted></_>
    <_>
      <rects>
        <_>
          3 12 2 10 -1.</_>
        <_>
          3 12 1 5 2.</_>
        <_>
          4 17 1 5 2.</_></rects>
      <tilted>0</tilted></_>
    <_>
      <rects>
        <_>
          3 13 2 4 -1.</_>
        <_>
          3 13 1 2 2.</_>
        <_>
          4 15 1 2 2.</_></rects>
      <tilted>0</tilted></_>
    <_>
      <rects>
        <_>
          4 0 3 4 -1.</_>
        <_>
          4 2 3 2 2.</_></rects>
      <tilted>0</tilted></_>
    <_>
      <rects>
        <_>
          4 0 9 2 -1.</_>
        <_>
          7 0 3 2 3.</_></rects>
      <tilted>0</tilted></_>
    <_>
      <rects>
        <_>
          4 0 10 6 -1.</_>
        <_>
          4 2 10 2 3.</_></rects>
      <tilted>0</tilted></_>
    <_>
      <rects>
        <_>
          4 1 18 16 -1.</_>
        <_>
          4 1 9 8 2.</_>
        <_>
          13 9 9 8 2.</_></rects>
      <tilted>0</tilted></_>
    <_>
      <rects>
        <_>
          4 10 17 14 -1.</_>
        <_>
          4 17 17 7 2.</_></rects>
      <tilted>0</tilted></_>
    <_>
      <rects>
        <_>
          4 14 4 8 -1.</_>
        <_>
          4 14 2 4 2.</_>
        <_>
          6 18 2 4 2.</_></rects>
      <tilted>0</tilted></_>
    <_>
      <rects>
        <_>
          4 14 15 10 -1.</_>
        <_>
          4 19 15 5 2.</_></rects>
      <tilted>0</tilted></_>
    <_>
      <rects>
        <_>
          5 1 2 7 -1.</_>
        <_>
          6 1 1 7 2.</_></rects>
      <tilted>0</tilted></_>
    <_>
      <rects>
        <_>
          5 3 3 3 -1.</_>
        <_>
          6 3 1 3 3.</_></rects>
      <tilted>0</tilted></_>
    <_>
      <rects>
        <_>
          5 12 4 10 -1.</_>
        <_>
          5 12 2 5 2.</_>
        <_>
          7 17 2 5 2.</_></rects>
      <tilted>0</tilted></_>
    <_>
      <rects>
        <_>
          5 16 2 4 -1.</_>
        <_>
          5 16 1 2 2.</_>
        <_>
          6 18 1 2 2.</_></rects>
      <tilted>0</tilted></_>
    <_>
      <rects>
        <_>
          5 16 2 6 -1.</_>
        <_>
          5 16 1 3 2.</_>
        <_>
          6 19 1 3 2.</_></rects>
      <tilted>0</tilted></_>
    <_>
      <rects>
        <_>
          5 21 2 3 -1.</_>
        <_>
          5 22 2 1 3.</_></rects>
      <tilted>0</tilted></_>
    <_>
      <rects>
        <_>
          6 0 13 2 -1.</_>
        <_>
          6 1 13 1 2.</_></rects>
      <tilted>0</tilted></_>
    <_>
      <rects>
        <_>
          6 7 6 10 -1.</_>
        <_>
          6 12 6 5 2.</_></rects>
      <tilted>0</tilted></_>
    <_>
      <rects>
        <_>
          6 8 10 5 -1.</_>
        <_>
          11 8 5 5 2.</_></rects>
      <tilted>0</tilted></_>
    <_>
      <rects>
        <_>
          6 10 2 5 -1.</_>
        <_>
          7 10 1 5 2.</_></rects>
      <tilted>0</tilted></_>
    <_>
      <rects>
        <_>
          6 14 13 10 -1.</_>
        <_>
          6 19 13 5 2.</_></rects>
      <tilted>0</tilted></_>
    <_>
      <rects>
        <_>
          6 20 6 4 -1.</_>
        <_>
          6 20 3 2 2.</_>
        <_>
          9 22 3 2 2.</_></rects>
      <tilted>0</tilted></_>
    <_>
      <rects>
        <_>
          7 0 9 1 -1.</_>
        <_>
          10 0 3 1 3.</_></rects>
      <tilted>0</tilted></_>
    <_>
      <rects>
        <_>
          7 0 17 2 -1.</_>
        <_>
          7 1 17 1 2.</_></rects>
      <tilted>0</tilted></_>
    <_>
      <rects>
        <_>
          7 22 1 2 -1.</_>
        <_>
          7 23 1 1 2.</_></rects>
      <tilted>0</tilted></_>
    <_>
      <rects>
        <_>
          8 0 9 1 -1.</_>
        <_>
          11 0 3 1 3.</_></rects>
      <tilted>0</tilted></_>
    <_>
      <rects>
        <_>
          8 0 10 2 -1.</_>
        <_>
          8 0 5 1 2.</_>
        <_>
          13 1 5 1 2.</_></rects>
      <tilted>0</tilted></_>
    <_>
      <rects>
        <_>
          8 6 3 4 -1.</_>
        <_>
          9 6 1 4 3.</_></rects>
      <tilted>0</tilted></_>
    <_>
      <rects>
        <_>
          8 8 8 12 -1.</_>
        <_>
          8 8 4 6 2.</_>
        <_>
          12 14 4 6 2.</_></rects>
      <tilted>0</tilted></_>
    <_>
      <rects>
        <_>
          8 18 8 6 -1.</_>
        <_>
          8 21 8 3 2.</_></rects>
      <tilted>0</tilted></_>
    <_>
      <rects>
        <_>
          9 2 12 18 -1.</_>
        <_>
          9 2 6 9 2.</_>
        <_>
          15 11 6 9 2.</_></rects>
      <tilted>0</tilted></_>
    <_>
      <rects>
        <_>
          9 21 7 3 -1.</_>
        <_>
          9 22 7 1 3.</_></rects>
      <tilted>0</tilted></_>
    <_>
      <rects>
        <_>
          10 0 10 4 -1.</_>
        <_>
          10 2 10 2 2.</_></rects>
      <tilted>0</tilted></_>
    <_>
      <rects>
        <_>
          10 3 5 8 -1.</_>
        <_>
          10 7 5 4 2.</_></rects>
      <tilted>0</tilted></_>
    <_>
      <rects>
        <_>
          10 5 8 14 -1.</_>
        <_>
          10 12 8 7 2.</_></rects>
      <tilted>0</tilted></_>
    <_>
      <rects>
        <_>
          11 3 6 15 -1.</_>
        <_>
          11 8 6 5 3.</_></rects>
      <tilted>0</tilted></_>
    <_>
      <rects>
        <_>
          11 5 1 15 -1.</_>
        <_>
          11 10 1 5 3.</_></rects>
      <tilted>0</tilted></_>
    <_>
      <rects>
        <_>
          11 9 1 10 -1.</_>
        <_>
          11 14 1 5 2.</_></rects>
      <tilted>0</tilted></_>
    <_>
      <rects>
        <_>
          11 15 4 6 -1.</_>
        <_>
          11 18 4 3 2.</_></rects>
      <tilted>0</tilted></_>
    <_>
      <rects>
        <_>
          11 16 5 6 -1.</_>
        <_>
          11 18 5 2 3.</_></rects>
      <tilted>0</tilted></_>
    <_>
      <rects>
        <_>
          11 16 6 8 -1.</_>
        <_>
          11 20 6 4 2.</_></rects>
      <tilted>0</tilted></_>
    <_>
      <rects>
        <_>
          11 21 3 3 -1.</_>
        <_>
          11 22 3 1 3.</_></rects>
      <tilted>0</tilted></_>
    <_>
      <rects>
        <_>
          12 0 4 4 -1.</_>
        <_>
          12 0 2 2 2.</_>
        <_>
          14 2 2 2 2.</_></rects>
      <tilted>0</tilted></_>
    <_>
      <rects>
        <_>
          13 0 5 6 -1.</_>
        <_>
          13 2 5 2 3.</_></rects>
      <tilted>0</tilted></_>
    <_>
      <rects>
        <_>
          13 16 10 3 -1.</_>
        <_>
          13 17 10 1 3.</_></rects>
      <tilted>0</tilted></_>
    <_>
      <rects>
        <_>
          13 17 10 1 -1.</_>
        <_>
          18 17 5 1 2.</_></rects>
      <tilted>0</tilted></_>
    <_>
      <rects>
        <_>
          13 21 6 1 -1.</_>
        <_>
          16 21 3 1 2.</_></rects>
      <tilted>0</tilted></_>
    <_>
      <rects>
        <_>
          14 0 8 2 -1.</_>
        <_>
          14 1 8 1 2.</_></rects>
      <tilted>0</tilted></_>
    <_>
      <rects>
        <_>
          14 5 1 14 -1.</_>
        <_>
          14 12 1 7 2.</_></rects>
      <tilted>0</tilted></_>
    <_>
      <rects>
        <_>
          14 8 6 2 -1.</_>
        <_>
          14 9 6 1 2.</_></rects>
      <tilted>0</tilted></_>
    <_>
      <rects>
        <_>
          14 16 10 8 -1.</_>
        <_>
          14 16 5 4 2.</_>
        <_>
          19 20 5 4 2.</_></rects>
      <tilted>0</tilted></_>
    <_>
      <rects>
        <_>
          15 2 1 10 -1.</_>
        <_>
          15 7 1 5 2.</_></rects>
      <tilted>0</tilted></_>
    <_>
      <rects>
        <_>
          15 3 2 8 -1.</_>
        <_>
          16 3 1 8 2.</_></rects>
      <tilted>0</tilted></_>
    <_>
      <rects>
        <_>
          15 7 2 3 -1.</_>
        <_>
          16 7 1 3 2.</_></rects>
      <tilted>0</tilted></_>
    <_>
      <rects>
        <_>
          15 8 6 14 -1.</_>
        <_>
          15 8 3 7 2.</_>
        <_>
          18 15 3 7 2.</_></rects>
      <tilted>0</tilted></_>
    <_>
      <rects>
        <_>
          15 16 4 4 -1.</_>
        <_>
          15 16 2 2 2.</_>
        <_>
          17 18 2 2 2.</_></rects>
      <tilted>0</tilted></_>
    <_>
      <rects>
        <_>
          16 0 2 16 -1.</_>
        <_>
          16 0 1 8 2.</_>
        <_>
          17 8 1 8 2.</_></rects>
      <tilted>0</tilted></_>
    <_>
      <rects>
        <_>
          16 10 3 3 -1.</_>
        <_>
          16 11 3 1 3.</_></rects>
      <tilted>0</tilted></_>
    <_>
      <rects>
        <_>
          17 15 6 8 -1.</_>
        <_>
          17 15 3 4 2.</_>
        <_>
          20 19 3 4 2.</_></rects>
      <tilted>0</tilted></_>
    <_>
      <rects>
        <_>
          17 22 1 2 -1.</_>
        <_>
          17 23 1 1 2.</_></rects>
      <tilted>0</tilted></_>
    <_>
      <rects>
        <_>
          18 0 6 12 -1.</_>
        <_>
          20 0 2 12 3.</_></rects>
      <tilted>0</tilted></_>
    <_>
      <rects>
        <_>
          18 3 6 14 -1.</_>
        <_>
          21 3 3 14 2.</_></rects>
      <tilted>0</tilted></_>
    <_>
      <rects>
        <_>
          18 4 6 12 -1.</_>
        <_>
          20 4 2 12 3.</_></rects>
      <tilted>0</tilted></_>
    <_>
      <rects>
        <_>
          18 6 6 18 -1.</_>
        <_>
          18 6 3 9 2.</_>
        <_>
          21 15 3 9 2.</_></rects>
      <tilted>0</tilted></_>
    <_>
      <rects>
        <_>
          18 7 6 1 -1.</_>
        <_>
          20 7 2 1 3.</_></rects>
      <tilted>0</tilted></_>
    <_>
      <rects>
        <_>
          18 9 4 8 -1.</_>
        <_>
          18 9 2 4 2.</_>
        <_>
          20 13 2 4 2.</_></rects>
      <tilted>0</tilted></_>
    <_>
      <rects>
        <_>
          18 10 6 14 -1.</_>
        <_>
          18 10 3 7 2.</_>
        <_>
          21 17 3 7 2.</_></rects>
      <tilted>0</tilted></_>
    <_>
      <rects>
        <_>
          18 16 2 4 -1.</_>
        <_>
          18 16 1 2 2.</_>
        <_>
          19 18 1 2 2.</_></rects>
      <tilted>0</tilted></_>
    <_>
      <rects>
        <_>
          18 19 2 2 -1.</_>
        <_>
          18 20 2 1 2.</_></rects>
      <tilted>0</tilted></_>
    <_>
      <rects>
        <_>
          18 21 2 3 -1.</_>
        <_>
          18 22 2 1 3.</_></rects>
      <tilted>0</tilted></_>
    <_>
      <rects>
        <_>
          20 0 3 6 -1.</_>
        <_>
          21 0 1 6 3.</_></rects>
      <tilted>0</tilted></_>
    <_>
      <rects>
        <_>
          20 0 3 12 -1.</_>
        <_>
          21 0 1 12 3.</_></rects>
      <tilted>0</tilted></_>
    <_>
      <rects>
        <_>
          20 0 4 4 -1.</_>
        <_>
          22 0 2 4 2.</_></rects>
      <tilted>0</tilted></_>
    <_>
      <rects>
        <_>
          20 0 4 14 -1.</_>
        <_>
          22 0 2 14 2.</_></rects>
      <tilted>0</tilted></_>
    <_>
      <rects>
        <_>
          20 0 4 15 -1.</_>
        <_>
          22 0 2 15 2.</_></rects>
      <tilted>0</tilted></_>
    <_>
      <rects>
        <_>
          20 0 4 16 -1.</_>
        <_>
          22 0 2 16 2.</_></rects>
      <tilted>0</tilted></_>
    <_>
      <rects>
        <_>
          20 4 3 6 -1.</_>
        <_>
          21 4 1 6 3.</_></rects>
      <tilted>0</tilted></_>
    <_>
      <rects>
        <_>
          21 1 3 13 -1.</_>
        <_>
          22 1 1 13 3.</_></rects>
      <tilted>0</tilted></_>
    <_>
      <rects>
        <_>
          21 4 3 2 -1.</_>
        <_>
          22 4 1 2 3.</_></rects>
      <tilted>0</tilted></_>
    <_>
      <rects>
        <_>
          21 7 3 4 -1.</_>
        <_>
          22 7 1 4 3.</_></rects>
      <tilted>0</tilted></_>
    <_>
      <rects>
        <_>
          21 9 3 2 -1.</_>
        <_>
          22 9 1 2 3.</_></rects>
      <tilted>0</tilted></_>
    <_>
      <rects>
        <_>
          22 21 2 3 -1.</_>
        <_>
          22 22 2 1 3.</_></rects>
      <tilted>0</tilted></_>
    <_>
      <rects>
        <_>
          23 13 1 3 -1.</_>
        <_>
          23 14 1 1 3.</_></rects>
      <tilted>0</tilted></_></features></cascade>
</opencv_storage>
